{"type":"NeuralNetwork","sizes":[7,20,10,10,5],"layers":[{"weights":[],"biases":[]},{"weights":[[-4.687307834625244,-3.018920421600342,-5.420444011688232,-9.206548690795898,8.44979476928711,7.49092435836792,-0.20837263762950897],[3.6405489444732666,-0.19421885907649994,-2.239879846572876,2.3517019748687744,4.475577354431152,-4.132168769836426,-4.121095180511475],[-2.022411584854126,-0.5077204704284668,2.5178449153900146,-3.5905332565307617,-1.3140851259231567,-1.045061469078064,4.300724506378174],[-1.6690585613250732,2.771848678588867,4.4051923751831055,-5.632880210876465,4.671372413635254,-1.7408490180969238,-4.429906845092773],[1.1684973239898682,-5.115940093994141,-4.511977672576904,-7.662868976593018,6.260863780975342,3.307952404022217,5.244699478149414],[2.659783124923706,-0.8537147045135498,-1.8800530433654785,3.2226333618164062,-4.5473313331604,-2.0327188968658447,-4.940203666687012],[-0.21550646424293518,-5.859732151031494,-5.2958245277404785,-8.076028823852539,9.524687767028809,4.828716278076172,6.028414726257324],[-3.1122395992279053,5.777301788330078,-2.2548022270202637,-7.623976230621338,-2.63308048248291,-6.564046859741211,3.221503257751465],[-3.179443359375,-4.4426751136779785,-12.150908470153809,6.373336315155029,-1.6031683683395386,18.686609268188477,6.770699501037598],[-1.4774690866470337,-0.8555794954299927,-2.2860567569732666,-1.356560468673706,0.47241225838661194,4.695149898529053,0.8117716908454895],[-1.4840160608291626,-0.5459128022193909,1.1012191772460938,-0.6095874905586243,5.454164028167725,5.791420936584473,3.589146137237549],[-2.8670549392700195,-3.0168352127075195,0.510326623916626,-2.214020252227783,8.442405700683594,7.269001483917236,2.113948345184326],[2.4557886123657227,3.586461305618286,-2.3498685359954834,1.7854214906692505,0.31353890895843506,-3.405081272125244,-3.8635270595550537],[-4.493622303009033,4.476378440856934,12.067582130432129,-8.131969451904297,-1.650888442993164,-18.882251739501953,0.6179983019828796],[-0.019799228757619858,0.7542975544929504,-0.6396318674087524,-5.9374871253967285,2.7008800506591797,-2.9716923236846924,-5.947762489318848],[0.7421802282333374,4.460653781890869,3.2631332874298096,0.3446497321128845,-0.4947841763496399,-2.677583694458008,-5.160547733306885],[0.5337537527084351,2.406766176223755,-1.2899879217147827,7.014310359954834,-14.550003051757812,-12.312487602233887,-1.0578275918960571],[-1.5414352416992188,-1.4332765340805054,6.8760247230529785,-10.378605842590332,2.695927619934082,-2.039381980895996,1.5911834239959717],[-7.373788356781006,-6.139888763427734,-2.5315940380096436,6.872732639312744,9.576825141906738,6.308726787567139,18.952661514282227],[0.32358697056770325,1.69956636428833,2.3805744647979736,-1.6520801782608032,4.527439117431641,-3.5212178230285645,-1.0160788297653198]],"biases":[-1.009919285774231,0.23158268630504608,0.07522217184305191,-0.3945673406124115,-0.23216184973716736,0.39249616861343384,0.05798628553748131,-0.651563286781311,-0.4754912555217743,-0.44830986857414246,-0.24564307928085327,-0.25416767597198486,0.399339884519577,0.4783916175365448,-0.24801234900951385,0.40064412355422974,1.3201861381530762,0.41912466287612915,-1.892720341682434,-0.02170964889228344]},{"weights":[[4.551210403442383,-2.307163715362549,0.06318748742341995,2.1325888633728027,-1.4307383298873901,-2.7822420597076416,-4.741636753082275,-1.07496178150177,0.08940616250038147,-0.4198988080024719,0.07510256767272949,2.7095086574554443,-4.161500453948975,-1.1260716915130615,-1.182620644569397,-0.42438095808029175,-6.777710914611816,1.9358506202697754,2.6053154468536377,-3.287821054458618],[1.7131938934326172,-1.3413513898849487,1.561805009841919,-3.5911543369293213,1.506218671798706,-3.3199105262756348,1.0431212186813354,1.3282277584075928,1.0465679168701172,0.41137605905532837,0.31945496797561646,4.996913909912109,-2.816725015640259,2.3706142902374268,-4.83834981918335,-3.663228750228882,-3.20025634765625,2.7332828044891357,3.798539876937866,-2.8945322036743164],[1.0609912872314453,-1.0985122919082642,-0.477622926235199,0.7188049554824829,-1.6006367206573486,-0.874749481678009,1.120816707611084,-0.24721390008926392,-1.3329658508300781,-0.48859187960624695,1.559736967086792,0.20117084681987762,-2.7317028045654297,3.1134345531463623,0.08586196601390839,-0.7515436410903931,-3.842526912689209,0.2121209353208542,-0.37494784593582153,-1.7361416816711426],[4.94956636428833,-1.7402178049087524,0.38777440786361694,1.84258234500885,3.0058634281158447,-4.289135932922363,5.663163185119629,4.418147087097168,-5.254574298858643,0.7902544736862183,2.6893789768218994,-0.4442993402481079,-2.6879775524139404,3.294895887374878,2.5654499530792236,-2.8107473850250244,-4.3337836265563965,2.1117165088653564,-4.153792858123779,-2.8382437229156494],[1.0993729829788208,-1.1560466289520264,-0.8886101841926575,0.4259096682071686,-1.1767646074295044,-0.7384872436523438,0.30361509323120117,0.1338309794664383,-1.3176172971725464,-0.5235965847969055,0.833227276802063,0.094572052359581,-1.1924118995666504,0.9349802732467651,-0.02474690042436123,-0.8771557807922363,-2.890998601913452,-0.2668975293636322,-1.1911417245864868,-1.5050755739212036],[1.110306739807129,-2.623178482055664,-0.5455900430679321,-0.5655262470245361,-1.4642541408538818,-3.472130298614502,0.6900610327720642,5.463116645812988,-1.4766008853912354,-0.2897409200668335,0.5612471103668213,-3.5922493934631348,-0.6473270058631897,2.401671886444092,-1.347354531288147,-1.3158894777297974,-1.168828010559082,0.5650631785392761,-2.920253038406372,-2.968613862991333],[-1.4559999704360962,-1.9859039783477783,0.5526137351989746,-3.4136013984680176,2.1146395206451416,-1.9812421798706055,2.8621585369110107,4.207587242126465,0.5817243456840515,0.1405153125524521,1.7651898860931396,-2.2855334281921387,-3.210001230239868,5.456822395324707,-0.6271170973777771,-3.977158546447754,-1.264952540397644,1.8386679887771606,7.765811920166016,-2.778998613357544],[2.3957114219665527,-1.7805237770080566,-0.09614305198192596,-0.6446372270584106,-0.7146271467208862,-2.0521583557128906,1.047674298286438,1.1805531978607178,-1.0738918781280518,-0.15658028423786163,1.000196099281311,0.12518423795700073,-1.3376115560531616,0.5953801274299622,-1.3030542135238647,-0.4740695059299469,-2.074117422103882,0.670268714427948,-0.41140255331993103,-1.6869171857833862],[-4.12197732925415,-1.518851637840271,0.6562845706939697,3.450269937515259,-3.6898040771484375,-0.1814296394586563,-4.158918380737305,1.9060660600662231,-6.38196325302124,-1.0714428424835205,-0.48641231656074524,-2.558974266052246,-0.89634770154953,5.075955390930176,3.2515392303466797,2.495285987854004,3.261688232421875,1.4400326013565063,-5.464746952056885,-1.2881296873092651],[1.3989136219024658,-0.2809832692146301,-1.1501271724700928,0.9839046001434326,-3.1967952251434326,-1.8406941890716553,-1.8509734869003296,-2.71753191947937,-1.7267565727233887,-0.5937564373016357,1.3131675720214844,1.0604838132858276,-1.7928091287612915,2.4545726776123047,0.41418397426605225,-0.287136435508728,-5.591707706451416,-0.3771914839744568,1.2068355083465576,-2.0856218338012695]],"biases":[-2.2722437381744385,-2.040508270263672,-0.8616014719009399,-2.7862155437469482,-0.7728215456008911,-1.4882017374038696,-1.5522749423980713,-0.9872751832008362,-0.8117965459823608,-1.1861557960510254]},{"weights":[[-2.026707172393799,-1.352960228919983,-1.1226189136505127,-0.3954054117202759,-0.49071595072746277,-1.1818684339523315,-1.2093658447265625,-0.902567982673645,-1.4134811162948608,-1.0940510034561157],[2.282893657684326,0.4166484773159027,-1.5780740976333618,-1.5193979740142822,-0.9961404800415039,-1.8103526830673218,-5.299650192260742,-1.2107493877410889,-5.132596492767334,-1.3959063291549683],[-6.081057071685791,-2.382901191711426,-1.9711581468582153,-2.857739210128784,-0.8195540308952332,-3.2412712574005127,-1.0980478525161743,-1.9999992847442627,2.2256946563720703,-2.0975677967071533],[-5.065776348114014,-1.9379734992980957,1.477780818939209,6.2742133140563965,0.3787989318370819,-1.1347167491912842,-3.492809772491455,0.14030404388904572,-0.11031927168369293,-1.3695778846740723],[-2.4362447261810303,-6.201527118682861,-1.7891961336135864,2.545440912246704,-1.5231047868728638,4.984321594238281,5.93324089050293,0.43273502588272095,-2.751225233078003,-3.8986995220184326],[-1.856675386428833,-2.1360104084014893,0.97725909948349,7.052628993988037,-0.24985246360301971,1.5747301578521729,-4.441323757171631,0.8708854913711548,-2.530669927597046,-0.4585011899471283],[-2.321101427078247,-3.887054443359375,-1.28895103931427,-0.6631820201873779,-0.5656663775444031,-1.1370415687561035,-4.5386223793029785,-1.2806334495544434,-0.4397455155849457,-0.9567070603370667],[-2.1816751956939697,-3.503887176513672,-0.8594550490379333,-1.4119514226913452,-0.46322399377822876,-1.363258957862854,-3.4286091327667236,-1.0750312805175781,-1.4421844482421875,-0.7946808338165283],[-1.596971035003662,-2.790954351425171,-1.9417481422424316,-1.2782940864562988,-0.7181941866874695,-1.0864787101745605,-4.351126670837402,-1.2655725479125977,-0.4113592207431793,-0.8987146615982056],[-6.056187629699707,1.9612804651260376,-1.1892222166061401,-4.61643123626709,-0.7138288021087646,-1.9277329444885254,2.345341920852661,-1.251027226448059,-5.81813383102417,-1.6782586574554443]],"biases":[-0.195967435836792,1.8811125755310059,1.6128593683242798,1.0776475667953491,0.4817548096179962,1.4392403364181519,2.4091601371765137,2.2685837745666504,2.2983736991882324,-0.1485205590724945]},{"weights":[[1.6801406145095825,0.969380795955658,1.2711926698684692,-1.9381892681121826,-5.534779071807861,-2.8561079502105713,3.9999947547912598,3.5978400707244873,3.95754337310791,-2.2630772590637207],[-1.3092329502105713,-2.190331220626831,-0.35703617334365845,-3.509213924407959,-5.89012336730957,-1.9407880306243896,-1.0646182298660278,-1.261465072631836,-1.5612823963165283,-1.2044365406036377],[0.6019663214683533,2.2531144618988037,2.6206512451171875,-2.1458892822265625,4.533668518066406,-3.7014756202697754,-2.000000476837158,-2.2129688262939453,-1.2203192710876465,-6.257514953613281],[-0.26685819029808044,-2.2032556533813477,-3.4308841228485107,-4.554368019104004,-0.6424090266227722,-0.26368680596351624,-0.6164861917495728,-1.197875738143921,-1.520346999168396,-3.115135669708252],[-0.15020546317100525,-1.8173784017562866,-3.681734800338745,5.1831560134887695,-0.35729867219924927,3.0997323989868164,-3.5983846187591553,-2.4402997493743896,-3.0446557998657227,7.237652778625488]],"biases":[-1.389170527458191,-1.112077236175537,-1.430580735206604,-1.4071965217590332,-1.6661200523376465]}],"inputLookup":{"gender":0,"openness":1,"age":2,"neuroticism":3,"conscientiousness":4,"agreeableness":5,"extraversion":6},"inputLookupLength":7,"outputLookup":{"extraverted":0,"serious":1,"dependable":2,"lively":3,"responsible":4},"outputLookupLength":5,"options":{"inputSize":0,"outputSize":0,"binaryThresh":0.5,"hiddenLayers":[20,10,10]},"trainOpts":{"activation":"sigmoid","iterations":50000,"errorThresh":0.005,"log":true,"logPeriod":10,"leakyReluAlpha":0.01,"learningRate":0.3,"momentum":0.1,"callbackPeriod":10,"timeout":"Infinity","beta1":0.9,"beta2":0.999,"epsilon":1e-8}}