{"type":"NeuralNetwork","sizes":[7,20,20,20,11],"layers":[{"weights":[],"biases":[]},{"weights":[[0.0027622662018984556,0.18347306549549103,0.08629128336906433,0.09624946117401123,-0.12212391197681427,0.05630272254347801,-0.036183714866638184],[0.16312803328037262,-0.1019379198551178,0.13392274081707,-0.13991640508174896,0.12451907992362976,-0.06223977729678154,0.1831592619419098],[0.19799022376537323,-0.0136554054915905,0.029606804251670837,-0.12777510285377502,-0.11926357448101044,-0.188978910446167,-0.09952284395694733],[-0.08548720926046371,-0.18566831946372986,-0.14040961861610413,-0.16554495692253113,0.004757795948535204,-0.08649648725986481,0.13974961638450623],[0.13928209245204926,0.07891681045293808,-0.18075941503047943,0.16972622275352478,-0.11018288135528564,-0.09049803763628006,-0.07917611300945282],[0.06028260663151741,0.10090473294258118,0.1346617192029953,0.14248546957969666,-0.05085456371307373,-0.04525304213166237,-0.16924439370632172],[0.19419308006763458,0.04147791862487793,-0.11556050926446915,0.15291014313697815,-0.19543878734111786,-0.19105768203735352,-0.02041117660701275],[0.0741124078631401,0.0017897322541102767,-0.08856987208127975,-0.11730508506298065,0.11906386911869049,-0.17446430027484894,-0.14974074065685272],[-0.12126327306032181,-0.038046978414058685,0.08219447731971741,-0.17716825008392334,0.07440323382616043,-0.19632817804813385,-0.04823492467403412],[-0.05628414452075958,0.034396667033433914,-0.11687708646059036,-0.17926229536533356,0.03656775504350662,-0.05324152857065201,0.13997116684913635],[-0.16922233998775482,0.010553298518061638,-0.05373850837349892,-0.08826354146003723,-0.08750340342521667,0.1737726777791977,0.016096213832497597],[0.02006012201309204,0.11120880395174026,-0.0674009919166565,-0.036806877702474594,-0.18762052059173584,-0.12264971435070038,-0.07074038684368134],[0.02650224044919014,0.03807096183300018,-0.17192155122756958,-0.16550180315971375,-0.18313735723495483,-0.18318378925323486,0.026969939470291138],[-0.17849597334861755,-0.02442631497979164,-0.12348564714193344,-0.05402911454439163,-0.0559038370847702,-0.11029624938964844,0.12412755936384201],[0.13915449380874634,0.008190295659005642,0.18783575296401978,0.09528664499521255,0.1824369728565216,0.12781615555286407,0.18610242009162903],[0.0015026998007670045,-0.11317703127861023,0.18006661534309387,0.06666889786720276,0.1999479979276657,0.003027792787179351,0.1496468037366867],[0.08239488303661346,-0.14731115102767944,0.08148465305566788,-0.0756748765707016,0.19228918850421906,-0.13605308532714844,0.07661614567041397],[0.14349086582660675,0.1693519502878189,-0.08933787047863007,0.09396838396787643,-0.03307872265577316,-0.06532546877861023,0.20046228170394897],[0.15930119156837463,0.1970244199037552,-0.18760177493095398,-0.029573440551757812,0.04754943028092384,0.06153762713074684,-0.08060337603092194],[0.06768209487199783,-0.12459969520568848,-0.203852117061615,-0.008974195457994938,-0.1811828911304474,0.15622246265411377,0.1668763905763626]],"biases":[0.0820847675204277,0.01915779523551464,0.185932457447052,-0.06142192706465721,-0.03762601315975189,-0.14173148572444916,-0.11710727214813232,-0.040553100407123566,-0.11877214163541794,0.07823885977268219,0.12064462900161743,0.11663781851530075,-0.15540915727615356,0.001437084749341011,0.049609169363975525,-0.005635141860693693,-0.1419546753168106,0.16224081814289093,-0.07095751166343689,-0.07246116548776627]},{"weights":[[0.18263861536979675,0.21072335541248322,-0.013156712986528873,0.11089635640382767,-0.02312495745718479,0.17734041810035706,-0.15009158849716187,-0.17705409228801727,0.11434768885374069,-0.15362247824668884,-0.1594884842634201,0.12498599290847778,0.0963803231716156,-0.19792260229587555,0.22320635616779327,0.04683727025985718,0.009253835305571556,-0.11628491431474686,0.10051163285970688,-0.19569607079029083],[0.17559751868247986,-0.13831114768981934,-0.06863924115896225,-0.020352832973003387,0.15064357221126556,0.1576024740934372,0.04618013650178909,-0.11243975162506104,0.09687811136245728,-0.014338627457618713,-0.005053862929344177,0.18920780718326569,0.19311532378196716,-0.11925487220287323,-0.054728731513023376,-0.061318252235651016,0.18945714831352234,0.003130699507892132,0.020415034145116806,-0.12383855134248734],[-0.19291241466999054,0.0169137641787529,-0.16987192630767822,0.17447304725646973,-0.07239636778831482,0.16154499351978302,0.047352083027362823,-0.1478225439786911,0.048203155398368835,-0.1526505947113037,-0.006432969123125076,0.09751362353563309,-0.1901455968618393,0.13528582453727722,0.007472571451216936,0.19713523983955383,0.00509329279884696,-0.1744840294122696,0.04840837046504021,0.12287676334381104],[-0.012095113284885883,0.1299513876438141,0.18735533952713013,-0.023978089913725853,0.05099811032414436,-0.11688534915447235,-0.09101520478725433,0.10502339154481888,-0.01932860165834427,-0.06900178641080856,0.15936723351478577,0.08880778402090073,0.007792327553033829,-0.1200418770313263,0.10769473016262054,0.18551066517829895,-0.07489544153213501,-0.1447451114654541,0.08920245617628098,0.15132105350494385],[-0.08344629406929016,0.009299811907112598,0.08631515502929688,-0.13989652693271637,0.1997145116329193,0.23826533555984497,0.074676513671875,-0.09907349944114685,-0.015270388685166836,-0.14275813102722168,0.07836207002401352,0.1255194991827011,0.010637562721967697,-0.061034463346004486,0.20069195330142975,0.11656250804662704,0.1672484576702118,0.21644704043865204,0.12369099259376526,-0.056618090718984604],[0.20699241757392883,0.09177809208631516,0.058403197675943375,0.05658793821930885,0.00018488145724404603,0.19614964723587036,-0.04189363494515419,0.09426861256361008,0.08718494325876236,0.0663825124502182,-0.07335592806339264,-0.014144469983875751,0.09305215626955032,-0.1868678480386734,0.010541798546910286,0.14404471218585968,0.1986577808856964,0.03701675310730934,0.17058014869689941,0.054542381316423416],[0.06191285327076912,-0.056700948625802994,-0.14952930808067322,0.07071656733751297,-0.14553306996822357,0.20285752415657043,-0.1345451921224594,-0.1331237554550171,-0.16870509088039398,-0.15767286717891693,-0.07438371330499649,0.08425971120595932,-0.06018856167793274,0.03194931522011757,-0.0806971862912178,-0.011351804248988628,-0.05069892108440399,-0.085911825299263,0.08390244841575623,-0.13025322556495667],[-0.10094862431287766,0.1016971543431282,-0.18071946501731873,0.16336727142333984,-0.11785625666379929,-0.06932173669338226,0.13738462328910828,-0.15834222733974457,-0.12026709318161011,-0.1814747005701065,0.18448425829410553,-0.015603478066623211,-0.09259296208620071,-0.0931861475110054,0.23624609410762787,-0.0013972535962238908,0.08634279668331146,-0.0021553561091423035,-0.10644637048244476,0.17743226885795593],[0.024668587371706963,0.020381683483719826,0.06863061338663101,-0.10639630258083344,0.18982163071632385,-0.11021627485752106,0.0038248172495514154,-0.1030423566699028,0.17773623764514923,-0.12374114245176315,-0.08322648704051971,0.16171729564666748,-0.10863765329122543,0.1115366742014885,0.03219913691282272,-0.06364079564809799,0.07986626029014587,0.1339409053325653,0.17142726480960846,0.1979294866323471],[0.03688030317425728,0.04760047793388367,-0.09213331341743469,0.03328218311071396,-0.07263939827680588,-0.01662028394639492,-0.020642921328544617,0.06126163899898529,0.17813138663768768,-0.042522985488176346,0.1753239631652832,-0.12482878565788269,-0.19618724286556244,0.07325862348079681,0.06465613842010498,0.18245689570903778,-0.10080807656049728,-0.07374077290296555,-0.00774390110746026,-0.1170058622956276],[0.17173641920089722,0.19555817544460297,0.11541322618722916,-0.1662738174200058,0.03585626184940338,0.042344000190496445,0.048780813813209534,-0.11694890260696411,-0.14996592700481415,-0.08154502511024475,0.11459507793188095,0.12057145684957504,0.18111872673034668,-0.05652811750769615,-0.04285011067986488,0.241947203874588,-0.13053618371486664,0.21675290167331696,0.03320933133363724,-0.1858602911233902],[0.12163862586021423,-0.022208543494343758,-0.19497472047805786,-0.1849132627248764,0.16388896107673645,0.0021333482582122087,0.1468149870634079,0.07968878746032715,-0.028197700157761574,0.10720334947109222,0.007069831248372793,-0.18908318877220154,0.09561118483543396,0.09200270473957062,0.047821663320064545,-0.17876799404621124,0.10111842304468155,-0.18122225999832153,0.12739115953445435,0.05503031238913536],[-0.12825830280780792,-0.17323154211044312,0.19433248043060303,-0.13032476603984833,-0.13864845037460327,0.21585480868816376,-0.06746501475572586,0.029770752415060997,-0.023217612877488136,0.1780153512954712,-0.0673922598361969,-0.02957421913743019,0.09612973034381866,0.054465774446725845,0.09351718425750732,0.01961435191333294,-0.03185860067605972,0.03561321645975113,-0.17981988191604614,0.13707971572875977],[-0.01974356360733509,0.08560844510793686,0.20771607756614685,0.12152105569839478,-0.13903063535690308,-0.09867509454488754,0.09723950922489166,0.10379991680383682,-0.10145550221204758,0.11999405175447464,0.13050603866577148,0.040002644062042236,-0.18135835230350494,0.19452933967113495,0.036464981734752655,0.19177329540252686,0.19330887496471405,0.011814435012638569,-0.09719594568014145,0.11698891967535019],[-0.016606561839580536,0.011933594010770321,-0.12321103364229202,0.08725253492593765,-0.07132216542959213,0.19852639734745026,-0.052176762372255325,0.1792668253183365,-0.16745005548000336,0.010404895059764385,0.0264426302164793,0.03678731992840767,0.06082073599100113,0.1333630532026291,0.06150747835636139,0.057614170014858246,0.1931910663843155,0.18531472980976105,0.1390303522348404,-0.14756157994270325],[-0.04613704979419708,0.20648105442523956,-0.063868448138237,-0.08313648402690887,-0.18380458652973175,0.18381844460964203,0.07015226036310196,0.14238476753234863,0.07928517460823059,-0.13771255314350128,-0.014594076201319695,0.06775646656751633,-0.014685412868857384,0.09431623667478561,-0.1380368173122406,0.11819350719451904,0.050231579691171646,-0.15593595802783966,-0.12165378779172897,0.05074138566851616],[0.13126111030578613,-0.02650544047355652,0.019196700304746628,-0.006609492935240269,0.09092572331428528,-0.01132890023291111,-0.09275229275226593,0.043993011116981506,0.038663145154714584,-0.19096587598323822,0.1933077871799469,0.02097969502210617,-0.04454218968749046,0.04882344231009483,0.13467265665531158,-0.03850836306810379,-0.1119365245103836,-0.04600208252668381,-0.14423316717147827,0.045834414660930634],[0.05173925682902336,-0.055537186563014984,-0.07613171637058258,-0.18179823458194733,-0.06072884052991867,0.03782051429152489,-0.003303093835711479,-0.13110825419425964,-0.009260594844818115,0.012096845544874668,0.05202201381325722,-0.10758689045906067,0.09927689284086227,0.14809878170490265,-0.021975884214043617,0.1477404683828354,0.06561804562807083,-0.08319893479347229,0.18075241148471832,-0.14666584134101868],[0.22265012562274933,0.14054366946220398,-0.16939105093479156,-0.19741715490818024,-0.040022727102041245,0.14253096282482147,-0.10333353281021118,0.08316655457019806,0.03733014315366745,0.17449793219566345,-0.012166418135166168,-0.0426262728869915,0.025472408160567284,-0.07201395183801651,0.21993057429790497,0.14338232576847076,-0.10301999747753143,-0.16489122807979584,-0.15366889536380768,0.0319906510412693],[0.016862157732248306,-0.028759583830833435,-0.15843169391155243,0.08126487582921982,-0.11033632606267929,0.16208024322986603,0.09273888915777206,0.07311617583036423,-0.08929402381181717,-0.16307048499584198,-0.1604066640138626,-0.15306712687015533,-0.01769292913377285,-0.19801825284957886,0.21656665205955505,-0.03675301745533943,0.016400640830397606,0.05153125897049904,-0.09020784497261047,-0.08360590785741806]],"biases":[-0.0661422461271286,-0.03155859559774399,-0.14265978336334229,-0.1423608958721161,-0.0028483844362199306,-0.019937748089432716,0.16523556411266327,0.008168735541403294,0.10368024557828903,0.001954855630174279,0.21844257414340973,-0.15190854668617249,-0.1047864705324173,0.13904699683189392,-0.1597057729959488,-0.05608092248439789,0.04978252574801445,-0.05966930463910103,-0.006542311515659094,0.017626451328396797]},{"weights":[[-0.03167806938290596,0.09575328230857849,0.20436419546604156,-0.14653632044792175,0.033881448209285736,0.007927502505481243,-0.15363340079784393,0.23662029206752777,-0.058073922991752625,0.15155231952667236,0.08557803928852081,-0.1406877338886261,0.17926493287086487,0.0736912414431572,-0.053568437695503235,-0.09280084073543549,0.0378342941403389,-0.12897136807441711,0.18316148221492767,-0.11037077754735947],[0.23347003757953644,0.014094333164393902,0.06581296771764755,-0.017399834468960762,0.24818675220012665,0.07817003130912781,0.2028072327375412,0.19731615483760834,0.06764449924230576,0.07894397526979446,0.23991265892982483,-0.012193690985441208,0.1663219928741455,0.2690867483615875,0.2691418528556824,-0.050229862332344055,0.15164907276630402,0.200936958193779,0.21919406950473785,0.16476303339004517],[0.05263160169124603,-0.04566749557852745,0.003941981587558985,0.11658578366041183,0.21914072334766388,-0.07158481329679489,0.21940523386001587,0.09233516454696655,0.2123700976371765,0.1805444359779358,0.23104079067707062,0.09780071675777435,-0.022035008296370506,0.03992580249905586,-0.09890660643577576,0.09083355218172073,0.13762815296649933,-0.010421841405332088,0.08761389553546906,0.2795468270778656],[0.016530968248844147,-0.011050109751522541,-0.1309957057237625,-0.005781711079180241,-0.02961064502596855,0.2588852643966675,0.02475474774837494,-0.06305800378322601,-0.10259411484003067,0.22261425852775574,-0.023063210770487785,0.15908946096897125,-0.01629260927438736,0.16231822967529297,-0.0049216714687645435,0.21154306828975677,-0.06930577009916306,0.12344536930322647,0.11356790363788605,-0.0038801198825240135],[0.2754787802696228,0.1994355320930481,0.04387287423014641,0.2118503898382187,0.2028537541627884,-0.007412950042635202,-0.10188204795122147,0.0256445724517107,0.24303622543811798,0.10434549301862717,0.20991827547550201,0.039006829261779785,-0.10488888621330261,-0.0626186951994896,-0.041104212403297424,0.07138942927122116,-0.02185153402388096,0.12063804268836975,-0.009861244820058346,0.0134867699816823],[0.12777192890644073,0.23735788464546204,-0.11975466459989548,0.1701950579881668,0.2694872319698334,0.07724130153656006,0.24535781145095825,-0.11843159794807434,-0.06066981703042984,0.22502435743808746,0.1307435929775238,0.1477559208869934,0.26796239614486694,-0.06387320160865784,-0.0917392373085022,0.07732506841421127,-0.11424585431814194,-0.07226496934890747,0.18794091045856476,0.1580408215522766],[0.15904441475868225,0.0179152749478817,0.18438933789730072,-0.004042064305394888,0.2555554509162903,0.29808229207992554,0.04534502327442169,0.24183064699172974,0.18346236646175385,0.21596677601337433,0.2753979563713074,-0.11640287935733795,0.11283613741397858,0.2668036222457886,0.2816624641418457,0.1561315357685089,0.16046805679798126,0.08150019496679306,0.16840018332004547,0.10401146113872528],[0.19516682624816895,0.05786745622754097,-0.07002880424261093,0.019350429996848106,0.24968138337135315,0.25388598442077637,-0.06996510177850723,0.07769395411014557,-0.07281443476676941,0.20425954461097717,0.3142071068286896,0.00953708216547966,-0.07433859258890152,0.0664815753698349,0.13427169620990753,0.17354583740234375,0.28289133310317993,-0.056606341153383255,0.2392784059047699,0.29323911666870117],[0.14457732439041138,0.09635889530181885,0.1530972719192505,-0.10870594531297684,0.258789986371994,-0.06527931988239288,-0.049794550985097885,0.07979267835617065,0.10030379891395569,-0.08382220566272736,0.07057700306177139,-0.06469912081956863,0.07354594767093658,0.14695268869400024,-0.06007948890328407,-0.05091213807463646,-0.022949833422899246,0.22808611392974854,0.0813608169555664,-0.01953340508043766],[-0.08928574621677399,0.10997212678194046,0.03271418437361717,0.25677889585494995,0.048646293580532074,0.1579846739768982,-0.04220309853553772,-0.10053224861621857,0.1849116086959839,0.1473350077867508,0.02674199268221855,0.002910342300310731,-0.007457422558218241,0.2629728317260742,0.13171397149562836,0.20955871045589447,0.11454480141401291,0.011223173700273037,0.015986956655979156,-0.08081386983394623],[-0.06362467259168625,-0.08416180312633514,0.224993497133255,0.06350526213645935,0.10910896211862564,0.08471018821001053,0.2348322868347168,0.2155696004629135,-0.0705714002251625,0.0359068401157856,0.009543074294924736,0.2152511477470398,0.06465619057416916,0.00692180497571826,-0.12939293682575226,0.13920852541923523,-0.013355416245758533,0.14494571089744568,-0.04504838585853577,0.047647614032030106],[-0.12487532943487167,0.011298283003270626,0.14904610812664032,0.19032679498195648,0.0035482796374708414,0.16495279967784882,0.09885076433420181,0.14481386542320251,-0.039593566209077835,0.006622901652008295,0.24590173363685608,0.060410819947719574,0.1539105623960495,0.2197139412164688,0.13009178638458252,0.12970471382141113,-0.13208243250846863,0.20477725565433502,-0.09732378274202347,-0.12040888518095016],[-0.024868449196219444,0.17490458488464355,0.04620162397623062,-0.09702291339635849,0.012702031061053276,-0.012083753012120724,-0.08245117962360382,0.1272526979446411,0.13853688538074493,0.06399044394493103,0.03227308392524719,-0.09242784231901169,-0.01137588918209076,0.05038469657301903,-0.011432865634560585,0.000004441710188984871,-0.08945895731449127,0.2287207990884781,-0.12820814549922943,-0.10251035541296005],[0.04091557115316391,-0.04867761582136154,0.2366165816783905,-0.07139148563146591,-0.04445858672261238,-0.1256973296403885,-0.015950895845890045,0.2467217594385147,0.053785163909196854,-0.07188577204942703,0.057727351784706116,0.1215725988149643,0.22521142661571503,-0.09968595951795578,0.2511684000492096,-0.1383124738931656,-0.09914252161979675,0.018780361860990524,0.16919027268886566,0.07857216894626617],[-0.022516809403896332,0.056691061705350876,0.059898585081100464,0.18094392120838165,0.0761435478925705,-0.09200536459684372,0.011799297295510769,0.1746310442686081,0.20741382241249084,0.04063374921679497,-0.003726373193785548,0.10406704246997833,0.1679771989583969,0.08569137006998062,0.16419263184070587,-0.057561226189136505,-0.10537546128034592,0.04570452496409416,0.024407625198364258,0.10721534490585327],[0.2606353163719177,-0.10318733751773834,0.05063348263502121,0.1320175975561142,0.1850760132074356,0.057424381375312805,0.24503207206726074,0.04371168464422226,0.20449940860271454,0.028257030993700027,0.21036724746227264,0.03300074115395546,0.06832385063171387,0.10920455306768417,0.17018896341323853,0.04529307410120964,0.21878354251384735,-0.0428428053855896,0.10816753655672073,0.042187292128801346],[0.21451963484287262,-0.08720499277114868,-0.06291063129901886,-0.13269080221652985,0.13922201097011566,-0.05401899665594101,0.15246781706809998,0.19341595470905304,0.1947222799062729,0.04103958606719971,0.25532132387161255,0.13668864965438843,-0.022046878933906555,0.06312835961580276,-0.079548180103302,0.21512703597545624,0.06171540543437004,0.18805868923664093,0.08901023119688034,0.1663421392440796],[0.2922266721725464,0.09899614006280899,0.06959038227796555,-0.05548608675599098,0.25362712144851685,0.16780170798301697,0.11932245641946793,0.1531727910041809,0.09659446775913239,0.13956882059574127,0.051730141043663025,0.18434283137321472,0.031105998903512955,0.2152881622314453,0.013704062439501286,0.03442056477069855,0.23658452928066254,0.22627462446689606,0.17239660024642944,0.10644244402647018],[-0.0228841844946146,0.15942144393920898,-0.05624256283044815,-0.09912300109863281,-0.11195512861013412,-0.0058792405761778355,-0.01420310977846384,-0.130842924118042,0.13833986222743988,-0.010067378170788288,0.04444677755236626,0.1515912264585495,0.05947701260447502,0.034961309283971786,0.20610330998897552,0.07632088661193848,-0.07460378855466843,-0.11126438528299332,0.19991660118103027,0.1561666876077652],[0.10223527997732162,-0.06879105418920517,-0.003897799178957939,0.03843429684638977,0.033265478909015656,-0.08688010275363922,-0.024327507242560387,0.19675467908382416,-0.10486543923616409,0.18777509033679962,0.10037228465080261,-0.028171520680189133,0.13842155039310455,0.19479678571224213,0.25285154581069946,0.13834144175052643,-0.07111939787864685,0.23167674243450165,0.012135222554206848,0.17243501543998718]],"biases":[-0.11001237481832504,0.3165619671344757,0.10820873081684113,0.29773229360580444,-0.043719325214624405,0.04489436373114586,0.3321455419063568,0.27392446994781494,-0.0762210264801979,0.19609449803829193,0.08716034144163132,0.0724017396569252,-0.11924893409013748,0.054446686059236526,0.14844894409179688,0.05158758535981178,0.2309955507516861,0.030216487124562263,0.028834732249379158,0.14220377802848816]},{"weights":[[-0.3495437502861023,-0.22362400591373444,-0.3085137903690338,-0.14514945447444916,-0.10463926941156387,-0.23885639011859894,-0.515394926071167,-0.3832385838031769,-0.3469023108482361,-0.38633233308792114,-0.04308925196528435,-0.4150749146938324,-0.1852513551712036,-0.06596165895462036,-0.41276833415031433,-0.1979910135269165,-0.10505537688732147,-0.4812498092651367,-0.3495825529098511,-0.33257022500038147],[-0.26674720644950867,-0.4094596207141876,-0.36534297466278076,-0.2028053253889084,-0.39960601925849915,-0.3917880058288574,-0.44196847081184387,-0.15555833280086517,-0.36859697103500366,-0.3298388421535492,-0.11524234712123871,-0.41854017972946167,-0.02427162043750286,-0.0713762491941452,-0.12996959686279297,-0.31964442133903503,-0.24519053101539612,-0.3622533679008484,-0.035312753170728683,-0.39623719453811646],[-0.13367287814617157,-0.4209069013595581,-0.19643761217594147,-0.3922199606895447,-0.25326478481292725,-0.42983052134513855,-0.5701871514320374,-0.5335527062416077,-0.14241133630275726,-0.3610621392726898,-0.10884162783622742,-0.14816701412200928,-0.11729966849088669,-0.19584830105304718,-0.24786439538002014,-0.33361077308654785,-0.19810888171195984,-0.21951870620250702,-0.1072838306427002,-0.2578684985637665],[-0.07472004741430283,-0.26778098940849304,-0.43394339084625244,-0.22957368195056915,-0.20816482603549957,-0.422206312417984,-0.46989893913269043,-0.35647284984588623,-0.09486165642738342,-0.40737828612327576,-0.07494251430034637,-0.10830231755971909,-0.00826207734644413,-0.3735865354537964,-0.24764323234558105,-0.18901050090789795,-0.31066256761550903,-0.45915091037750244,-0.31376126408576965,-0.21352626383304596],[-0.06933050602674484,-0.28886404633522034,-0.3080064356327057,-0.3660694360733032,-0.148365318775177,-0.34493857622146606,-0.38026952743530273,-0.32629290223121643,-0.31061938405036926,-0.3688487708568573,-0.4224196970462799,-0.0945621132850647,-0.0303172767162323,-0.27603963017463684,-0.37576666474342346,-0.29862281680107117,-0.2506394386291504,-0.4363018274307251,-0.10431870818138123,-0.18690195679664612],[-0.033901337534189224,-0.4744187593460083,-0.1349351555109024,-0.2036714404821396,-0.27011942863464355,-0.11328264325857162,-0.3708082139492035,-0.5193018913269043,-0.06608270108699799,-0.3199809491634369,-0.25234878063201904,-0.2705584764480591,-0.05521252751350403,-0.1562771201133728,-0.13690826296806335,-0.30296817421913147,-0.5146807432174683,-0.2960388660430908,-0.3254230320453644,-0.315773069858551],[-0.34383711218833923,-0.5455120801925659,-0.25595226883888245,-0.1288333237171173,-0.1464408040046692,-0.11353114247322083,-0.5611313581466675,-0.3123708963394165,-0.291901171207428,-0.17768335342407227,-0.36026641726493835,-0.23113702237606049,-0.3231847584247589,-0.10445903241634369,-0.058068983256816864,-0.13732858002185822,-0.1794309765100479,-0.47937262058258057,-0.17019028961658478,-0.41137826442718506],[-0.2672320008277893,-0.1777937263250351,-0.4262329041957855,-0.36593109369277954,-0.27920863032341003,-0.19112418591976166,-0.3679427206516266,-0.42125487327575684,-0.14439566433429718,-0.1755763292312622,-0.24112364649772644,-0.09200499206781387,-0.2454177439212799,-0.08084752410650253,-0.3853580057621002,-0.45590507984161377,-0.48053115606307983,-0.3582835793495178,-0.33832693099975586,-0.1483892947435379],[-0.10641705989837646,-0.5222287178039551,-0.36457541584968567,-0.10855387896299362,-0.3621729910373688,-0.19597427546977997,-0.4463893473148346,-0.28147485852241516,-0.20135459303855896,-0.07894425094127655,-0.13570557534694672,-0.40702730417251587,-0.3361417353153229,-0.21451552212238312,-0.0977492555975914,-0.39755427837371826,-0.1397448033094406,-0.1365123689174652,-0.32092976570129395,-0.31444185972213745],[-0.017895204946398735,-0.5036143660545349,-0.3286696970462799,-0.3803013563156128,-0.3916861116886139,-0.23818235099315643,-0.4089178740978241,-0.44346702098846436,-0.2435845285654068,-0.38504067063331604,-0.12037554383277893,-0.15036356449127197,-0.2579355835914612,-0.2897264361381531,-0.10547135025262833,-0.40069252252578735,-0.1265581250190735,-0.2492275834083557,-0.31376591324806213,-0.07663886249065399],[-0.2928783595561981,-0.2837045192718506,-0.2066114991903305,-0.18533474206924438,-0.17990577220916748,-0.32108643651008606,-0.2986159026622772,-0.4191826283931732,-0.2156340628862381,-0.125332310795784,-0.30852195620536804,-0.24177590012550354,-0.20505467057228088,-0.3583333194255829,-0.45634111762046814,-0.4079059064388275,-0.2702808082103729,-0.18180511891841888,-0.12160531431436539,-0.4084472358226776]],"biases":[-0.3183993995189667,-0.33376675844192505,-0.3275490403175354,-0.4369378983974457,-0.38471150398254395,-0.4879051446914673,-0.4418269693851471,-0.2792293429374695,-0.5868656039237976,-0.3653247356414795,-0.4222521483898163]}],"inputLookup":{"gender":0,"openness":1,"age":2,"neuroticism":3,"conscientiousness":4,"agreeableness":5,"extraversion":6},"inputLookupLength":7,"outputLookup":{"0":0,"1":1,"2":2,"3":3,"4":4,"5":5,"6":6,"7":7,"8":8,"9":9,"10":10},"outputLookupLength":11,"options":{"inputSize":0,"outputSize":0,"binaryThresh":0.5,"hiddenLayers":[20,20,20]},"trainOpts":{"activation":"sigmoid","iterations":20000,"errorThresh":0.005,"log":true,"logPeriod":10,"leakyReluAlpha":0.01,"learningRate":0.3,"momentum":0.1,"callbackPeriod":10,"timeout":"Infinity","beta1":0.9,"beta2":0.999,"epsilon":1e-8}}