{"type":"NeuralNetwork","sizes":[7,20,20,20,5],"layers":[{"weights":[],"biases":[]},{"weights":[[-9.82967758178711,21.106945037841797,-11.846120834350586,-3.1532063484191895,7.476114273071289,-14.195928573608398,8.377481460571289],[-2.812983274459839,1.0265721082687378,0.052098348736763,3.9487106800079346,4.609313011169434,-3.6387908458709717,7.713318824768066],[-24.03611946105957,-12.1117525100708,-0.143992081284523,1.2149715423583984,21.97085952758789,19.11557388305664,18.475576400756836],[4.327666759490967,-4.446900367736816,-1.2130820751190186,-6.0919294357299805,1.8728914260864258,-0.431074857711792,4.147136211395264],[-0.546761155128479,4.019007682800293,17.08068084716797,-13.611906051635742,-5.569613933563232,-21.696474075317383,-5.833630084991455],[2.7055246829986572,-5.270004749298096,-4.938255310058594,-9.937582969665527,8.116155624389648,4.080535411834717,4.305060386657715],[-2.660120964050293,-3.1513278484344482,-3.4353082180023193,6.878934383392334,-12.870911598205566,-9.669212341308594,8.164253234863281],[-3.188948392868042,-2.521127462387085,0.6637825965881348,3.5761091709136963,2.0353264808654785,-1.2088419198989868,6.797333240509033],[-3.6323647499084473,-7.041903018951416,-11.443775177001953,-0.5599937438964844,12.885930061340332,9.462048530578613,6.8824849128723145],[1.0410948991775513,-0.6770424842834473,2.6572184562683105,2.807223320007324,-2.2591495513916016,-3.422351360321045,-0.08036114275455475],[2.725987434387207,1.5934168100357056,-5.865529537200928,14.445783615112305,-10.659616470336914,-10.582413673400879,-0.1980551928281784],[-1.7254711389541626,-3.0528063774108887,-0.12814341485500336,0.7516250014305115,8.400528907775879,4.296660423278809,3.5776009559631348],[4.467120170593262,-4.322699069976807,-14.427000045776367,9.913599967956543,1.6033809185028076,24.0364933013916,0.21230150759220123],[-31.074922561645508,-5.332928657531738,-2.560253858566284,-20.38888168334961,15.771930694580078,20.492589950561523,30.0543270111084],[-1.6307908296585083,8.351046562194824,0.22490280866622925,-0.644890546798706,7.874736785888672,-2.015782356262207,4.251542568206787],[-1.4239695072174072,9.1903715133667,0.2554187774658203,-2.1763453483581543,7.030869007110596,-2.188443183898926,2.4972126483917236],[-1.5251283645629883,1.0969665050506592,0.2842048406600952,4.4115681648254395,-2.4951109886169434,2.4527740478515625,3.4511709213256836],[-0.04823460429906845,0.5299505591392517,4.131155014038086,-3.3306875228881836,-0.7951743602752686,-4.220065116882324,-0.9192771911621094],[0.12347186356782913,1.108214259147644,0.3083448112010956,-8.404168128967285,-1.8337881565093994,-7.575068473815918,-0.45639491081237793],[0.8341916799545288,-1.2636566162109375,2.984010696411133,2.6690609455108643,-1.6557494401931763,-3.993744373321533,-0.5543780326843262]],"biases":[-2.261138916015625,-1.4470267295837402,-1.6601972579956055,0.6284646391868591,0.11868725717067719,0.6135996580123901,0.4736924171447754,-0.00017701876640785486,-0.9556789398193359,0.1790599524974823,0.7042452096939087,-0.8045428395271301,-0.7928667664527893,-3.870129346847534,-0.3692464530467987,-0.8485581278800964,-0.14503684639930725,-0.11702799052000046,-0.10587718337774277,0.32360032200813293]},{"weights":[[1.9080760478973389,0.3715498447418213,-1.419379472732544,-2.1899311542510986,-1.1279442310333252,-2.4868741035461426,3.2606546878814697,1.6253626346588135,-0.6089709401130676,-0.759260892868042,-1.7097837924957275,7.428466320037842,-0.9505953192710876,3.2071361541748047,-1.2652595043182373,0.1423078328371048,2.848933458328247,-0.9892904758453369,-3.3172459602355957,-0.5062001347541809],[0.05774306505918503,-0.46938034892082214,6.222466468811035,1.5218497514724731,-1.7184066772460938,-4.623630523681641,1.7431634664535522,-0.16946685314178467,1.7334203720092773,-2.008204698562622,-0.7544223070144653,0.3903484642505646,0.8046907186508179,7.260509490966797,-1.2907897233963013,-1.4303665161132812,0.7079460024833679,-1.418936848640442,-1.3447610139846802,-2.281895160675049],[-0.31193459033966064,-0.3125997483730316,0.006568137090653181,-0.13901567459106445,0.19802656769752502,0.2371239811182022,-0.06127237528562546,-0.46743661165237427,-0.9796953797340393,-0.7062720656394958,-1.2501353025436401,-0.31296783685684204,-0.44189223647117615,-0.14880506694316864,-0.5565220713615417,-1.046118974685669,-0.6912958025932312,-0.039978716522455215,1.8346786499023438,-0.6722809672355652],[2.9596564769744873,0.09780968725681305,1.7518136501312256,-1.3874605894088745,-0.6478023529052734,-2.823777675628662,0.06868640333414078,-0.06491300463676453,-0.8287531137466431,-0.8271046280860901,3.8486220836639404,-0.12306234240531921,2.5306339263916016,0.8592573404312134,-1.2195528745651245,-0.3311922550201416,-0.13289080560207367,-3.0687615871429443,-1.702144742012024,-0.8817754983901978],[2.5620486736297607,0.03907714784145355,1.0512990951538086,-1.8643457889556885,0.009200114756822586,-1.7279133796691895,4.085429668426514,-0.16600283980369568,-1.707240104675293,-1.6961870193481445,2.820511817932129,-0.567450761795044,-1.4329081773757935,-0.38639551401138306,-0.7319695949554443,-0.3707788288593292,0.05194530636072159,-1.0568957328796387,1.192976474761963,-2.130270004272461],[2.646458148956299,0.6087366342544556,-0.631947934627533,-8.237334251403809,3.3158318996429443,-5.268219947814941,2.6165246963500977,-0.3205396234989166,-5.175007343292236,-0.6902911067008972,0.2014039009809494,0.4166344404220581,-3.734558343887329,-2.0270586013793945,0.16389873623847961,-0.6488259434700012,1.4727319478988647,2.1006414890289307,1.9836711883544922,-1.279089331626892],[-0.24019896984100342,0.08073054999113083,1.4375032186508179,-1.282660722732544,-2.772054433822632,-2.028104066848755,2.851667881011963,0.1898900866508484,-0.9577933549880981,-1.0825228691101074,6.153570652008057,0.17989104986190796,3.79142427444458,0.5937429666519165,0.4624922275543213,0.2207529991865158,0.5048723816871643,-3.527942419052124,-1.9574840068817139,-1.496920108795166],[2.871406316757202,0.6054427623748779,0.3895040452480316,-0.864784300327301,0.6384444236755371,0.9813005328178406,3.3651978969573975,-0.2941107153892517,-0.36704158782958984,-0.8197978734970093,-0.6840237975120544,-0.06693354994058609,-0.6315163969993591,0.8028333783149719,-1.7113163471221924,-1.9230672121047974,-0.4943290650844574,-0.2586599588394165,1.6582120656967163,-1.04208505153656],[1.1750468015670776,-0.18688413500785828,3.39502215385437,-2.1058948040008545,-2.901401996612549,-1.8041139841079712,3.382411003112793,-0.12384693324565887,-2.622598171234131,-1.3905209302902222,4.730681896209717,0.5549939274787903,2.0601348876953125,5.474038124084473,1.1290299892425537,0.12140366435050964,0.432162344455719,-3.2712056636810303,-2.2382564544677734,-1.954850435256958],[-0.07509581744670868,-0.29672881960868835,-0.05092766135931015,-0.19143858551979065,-0.01118044275790453,-0.31119972467422485,0.2883101999759674,-0.08854664117097855,-0.45669877529144287,-0.5542112588882446,0.026840535923838615,-0.12392252683639526,-0.3403480350971222,-0.2572598159313202,-0.5628937482833862,-0.7766805291175842,-0.406389981508255,-0.44967544078826904,-0.1581984907388687,-0.39157310128211975],[1.0950865745544434,-0.020488234236836433,6.134074687957764,-0.8268042802810669,4.168001174926758,3.2153563499450684,6.188942909240723,-1.3572787046432495,-4.427009105682373,-2.313459634780884,-2.2504289150238037,-1.0386981964111328,0.1049865335226059,8.860699653625488,-3.2983462810516357,-3.7264091968536377,-1.4099504947662354,0.261452853679657,0.5305730700492859,-2.5610857009887695],[2.5740392208099365,0.2888656556606293,-0.03964630141854286,-1.2202765941619873,0.14821870625019073,-1.0942480564117432,0.635583221912384,-0.2711789906024933,-0.0016417854931205511,-0.9318269491195679,-0.8876631855964661,-0.04053719714283943,-0.35328173637390137,-0.1662278175354004,-0.9964011311531067,-1.082757830619812,-0.371057391166687,-0.2386314570903778,-0.04118002951145172,-1.2505625486373901],[8.151824951171875,0.16816920042037964,-0.9429091811180115,-0.952083945274353,1.4509690999984741,-1.0040701627731323,2.2613489627838135,-0.5754973888397217,-2.3830151557922363,-1.2698111534118652,-1.12700617313385,-0.05982214957475662,-1.866700530052185,2.42531418800354,-0.7711876630783081,-1.8711261749267578,-0.4954982101917267,0.08592378348112106,1.684295654296875,-1.288124680519104],[1.7348142862319946,-0.6129118204116821,10.252487182617188,-0.10381386429071426,-3.1186320781707764,2.2272541522979736,-4.335257053375244,0.469014048576355,3.0678298473358154,-2.8909339904785156,-5.455151081085205,1.1782667636871338,1.1541240215301514,4.568184852600098,2.232278823852539,2.413888692855835,1.8793460130691528,-1.9235808849334717,-3.3742477893829346,-2.7128682136535645],[-1.1831609010696411,-0.1260160654783249,5.393215656280518,2.9092795848846436,-2.399040699005127,-0.4767034649848938,2.7389049530029297,0.044577695429325104,0.2933613955974579,-1.4473419189453125,2.064741611480713,0.3167559802532196,2.9493746757507324,6.795427322387695,-2.7835233211517334,-0.9611190557479858,0.1668320745229721,-1.7314453125,-2.2098255157470703,-1.7178274393081665],[-1.9294193983078003,-0.6154443621635437,4.630748748779297,2.4305388927459717,-2.326263904571533,-3.4071972370147705,-0.1486242711544037,-0.7204713225364685,0.4331150949001312,-2.0860438346862793,-4.636829853057861,0.09655596315860748,0.4769998788833618,5.862213134765625,-0.19844532012939453,-0.12558452785015106,-0.10177650302648544,0.1414993554353714,-0.33837059140205383,-2.230984926223755],[5.159610748291016,0.7275746464729309,3.076568126678467,-1.440310001373291,3.4943301677703857,1.2548342943191528,5.826906204223633,-0.6469160914421082,-1.1810894012451172,-1.346500039100647,2.2666473388671875,-0.41522055864334106,-2.4189608097076416,3.7482707500457764,-3.1092240810394287,-3.446577310562134,-1.1029987335205078,0.20257332921028137,1.9532756805419922,-1.7123496532440186],[3.3886146545410156,0.15631556510925293,1.7100954055786133,-1.0609400272369385,-0.1264536827802658,1.275439739227295,3.9131691455841064,-0.1963784396648407,-1.8293192386627197,-1.194528341293335,-0.5037983059883118,0.08028998970985413,-1.0617499351501465,0.09333830326795578,-1.591545820236206,-2.2819201946258545,-0.5391796827316284,-0.3689577877521515,1.007243275642395,-1.2913814783096313],[1.5504908561706543,-0.8117871284484863,2.7604987621307373,-4.447866916656494,3.15504789352417,-1.5389853715896606,3.055633068084717,-1.6233060359954834,-1.774044394493103,-2.226924180984497,-1.4448531866073608,-0.4048953652381897,-5.9673357009887695,9.29120922088623,-0.7910866737365723,-1.9787840843200684,-0.3231182098388672,-0.11518022418022156,4.299022674560547,-2.5794243812561035],[0.23814882338047028,0.024252772331237793,0.06700164079666138,-0.7620606422424316,-0.38625383377075195,-0.8484477400779724,0.9353147149085999,-0.09988979995250702,-0.35419967770576477,-0.7003660798072815,0.3728773891925812,-0.3788427412509918,-0.33427393436431885,0.22165362536907196,-0.5784871578216553,-0.7190738320350647,-0.11610028147697449,-0.6164488196372986,-0.46739721298217773,-0.7903238534927368]],"biases":[-1.4100425243377686,-1.8569045066833496,-0.13457991182804108,-0.9335883259773254,-0.5377311706542969,0.49059435725212097,-0.8914746046066284,-0.0279342383146286,-1.2574857473373413,-0.3990497291088104,-0.4955369532108307,-0.4945816993713379,0.14932934939861298,-1.9337424039840698,-1.5370770692825317,-1.6149340867996216,-0.16871929168701172,-0.4636993408203125,-1.028143286705017,-0.4497770071029663]},{"weights":[[-0.08133015036582947,-1.8341619968414307,-0.009648904204368591,-0.7502938508987427,-0.5770267248153687,-0.34262925386428833,-0.7381834983825684,-0.5665590763092041,-1.0470077991485596,-0.19091084599494934,-0.6390284299850464,-0.7037667036056519,-2.327312707901001,-1.7604103088378906,-1.2027064561843872,-1.2540160417556763,-0.8451741933822632,-0.5924228429794312,-1.6024057865142822,-0.3884219229221344],[-2.3414275646209717,-2.6815435886383057,-0.3789374828338623,-1.2203019857406616,-0.5525973439216614,-2.5564725399017334,-0.19859828054904938,0.4959326684474945,-0.9424961805343628,-0.040589701384305954,1.3404645919799805,0.3849238157272339,4.780506134033203,0.7062551379203796,-1.7405673265457153,-1.053305983543396,2.7333695888519287,-0.4189380407333374,-0.926201581954956,-0.1308564841747284],[-0.3505702316761017,-1.6970546245574951,-0.3022858500480652,-0.6149395108222961,-0.6500963568687439,-0.5155001878738403,-0.5685351490974426,-0.29534295201301575,-1.0091384649276733,-0.0074963560327887535,-1.3772011995315552,-0.764162540435791,-1.4839144945144653,-1.0572878122329712,-1.0061160326004028,-1.233459711074829,-0.6817626357078552,-0.5805424451828003,-2.6398587226867676,-0.17638202011585236],[-5.816364765167236,-0.38287153840065,-0.8536157011985779,3.657658815383911,0.020650360733270645,0.45112478733062744,5.165020942687988,-2.0348904132843018,3.804809093475342,-0.08161095529794693,-5.368156909942627,-0.05916693061590195,-1.1705306768417358,-2.977661371231079,0.29511842131614685,-1.7701914310455322,-3.183267831802368,-2.36336350440979,-1.8440697193145752,0.09836884588003159],[-1.5750889778137207,-2.8076114654541016,0.4256085157394409,-1.0985296964645386,-0.48473137617111206,-1.3797235488891602,-1.2611422538757324,-0.08809830993413925,-1.563864827156067,-0.23127233982086182,-3.086888074874878,-0.4581516683101654,0.4489654302597046,-3.612398386001587,-1.0889941453933716,-1.7440266609191895,-0.817234456539154,-0.7431297898292542,5.1516594886779785,-0.10152239352464676],[-1.8032641410827637,1.3091347217559814,-0.7535429000854492,3.7067887783050537,1.8364630937576294,-4.56423807144165,2.32171630859375,1.2599650621414185,0.8240268230438232,0.06994104385375977,1.73574697971344,0.16397874057292938,0.061164047569036484,-4.486859321594238,2.2277932167053223,-0.9780269265174866,3.186058282852173,2.048962354660034,0.3993217349052429,0.6021631956100464],[-1.7663869857788086,-3.1696605682373047,-0.030433855950832367,-0.2811645567417145,-1.30996835231781,-0.42692312598228455,-0.7430330514907837,-0.43399113416671753,-1.4386653900146484,-0.2011299431324005,0.9615287780761719,-0.9546139240264893,-3.155050277709961,1.7425686120986938,-1.8256418704986572,-0.5613869428634644,-1.0104334354400635,0.36015844345092773,-1.4726279973983765,-0.21083158254623413],[-0.715114176273346,-1.78514564037323,0.007314272224903107,-0.49622437357902527,-0.6682800650596619,-0.9089818000793457,-0.6278045773506165,-0.2688066363334656,-0.9832802414894104,-0.06429441273212433,-0.7420048713684082,-0.6529136300086975,-0.9411616325378418,-0.9742979407310486,-1.2150359153747559,-1.1559618711471558,-0.6767699122428894,-0.8590056300163269,-1.515411138534546,-0.14733527600765228],[-0.13917498290538788,-2.631669521331787,-0.1816701889038086,-1.2883855104446411,-0.19380313158035278,-1.3837229013442993,-1.6505173444747925,0.0832400694489479,-1.8746434450149536,-0.07371921092271805,-2.5855727195739746,0.5746186971664429,4.844050407409668,-3.3600101470947266,-0.9366384744644165,-1.7896466255187988,0.8563875555992126,-0.4247167706489563,2.1820406913757324,-0.07017511874437332],[-0.5294657349586487,-1.9821033477783203,0.09182517975568771,-0.6540637612342834,-0.490599125623703,-0.3990685045719147,-0.38086941838264465,-0.5427119135856628,-0.6903213858604431,0.09095390141010284,-0.9652273058891296,-0.6519126296043396,-0.9161980152130127,-1.354285478591919,-1.3370754718780518,-1.156867504119873,-0.735166609287262,-0.6003261804580688,-1.7080637216567993,-0.45447298884391785],[-0.9269188046455383,1.792759895324707,-0.36205190420150757,1.3711308240890503,-2.000000238418579,-5.241744041442871,2.457310914993286,-1.5354628562927246,2.1631715297698975,-0.18102920055389404,-1.1386990547180176,-0.7038000822067261,-1.1329400539398193,-1.2935535907745361,4.697227478027344,2.499641180038452,-3.034602165222168,-1.6813820600509644,-4.002241611480713,-0.2616230845451355],[-0.7745559811592102,-2.1424105167388916,-0.12652762234210968,-0.7783233523368835,-0.8421809673309326,-0.8848863840103149,-0.5580026507377625,-0.6375982165336609,-1.2725155353546143,-0.21043424308300018,1.470422625541687,-0.5413592457771301,-1.298252820968628,-0.9015092849731445,-1.514711856842041,-1.3375803232192993,-0.7290406823158264,-0.4788869023323059,-1.9946961402893066,-0.4844651520252228],[-5.573736667633057,-1.1229230165481567,1.2221062183380127,0.1241244226694107,2.9132912158966064,-1.7209534645080566,-0.4371197819709778,0.7775460481643677,0.4179644286632538,0.23229387402534485,2.476886034011841,0.10899922251701355,0.1655454784631729,-4.432371616363525,-0.7562209367752075,-0.3659536838531494,1.9321563243865967,1.0495129823684692,2.9155471324920654,0.08210733532905579],[-0.7284714579582214,-2.1147215366363525,0.05576947331428528,-0.5980764627456665,-0.8270874619483948,-0.5244373083114624,-0.4505407512187958,-0.6221224069595337,-0.9614980816841125,-0.030209004878997803,0.017340416088700294,-0.565060555934906,-1.411475419998169,-1.1620601415634155,-1.4248321056365967,-0.9925069212913513,-0.93912672996521,-0.5742068886756897,-1.7812095880508423,-0.1267048716545105],[-0.5683805346488953,-1.9253852367401123,0.10051795840263367,-0.7107372283935547,-0.7917987704277039,-0.9950446486473083,-0.6931513547897339,-0.44562822580337524,-0.9259325265884399,-0.04174186661839485,-0.584195613861084,-0.6410059332847595,-0.8923945426940918,-0.9602366089820862,-1.3606351613998413,-1.229780673980713,-0.7372583150863647,-0.5135475397109985,-1.6703948974609375,-0.30477374792099],[-0.9628229141235352,-1.9101766347885132,-0.005204368848353624,-0.8465661406517029,-0.9526240229606628,-1.6157200336456299,-0.6212852001190186,-0.2977754473686218,-0.869936466217041,0.03771768882870674,-0.037919946014881134,-0.6721423268318176,-0.8036003112792969,-0.23123158514499664,-1.3463010787963867,-1.0555869340896606,-0.6668434739112854,-0.6746920943260193,-1.4301860332489014,-0.39017847180366516],[-2.0890889167785645,0.6153820157051086,-0.14313523471355438,-2.4609456062316895,-1.1277966499328613,-8.802267074584961,-2.980703115463257,-0.1805306375026703,-3.8590822219848633,-0.06994279474020004,0.7105705738067627,-1.061147928237915,-0.5015962719917297,2.138262987136841,-0.13291282951831818,1.2945417165756226,-0.883000373840332,-0.48127126693725586,-1.6341558694839478,-0.7160255908966064],[-2.740781545639038,-1.1605511903762817,-0.45568791031837463,-0.5750250816345215,-1.2500196695327759,-0.39106059074401855,-1.6094605922698975,-1.6937729120254517,-2.6528756618499756,-0.33399510383605957,-6.345885276794434,-0.14594005048274994,-3.9323511123657227,3.5551226139068604,-0.7429156303405762,0.8129789233207703,-2.043851137161255,-2.1701087951660156,0.44066572189331055,-0.0863967090845108],[-0.7993918657302856,-1.7542836666107178,-0.274844229221344,-0.5464808940887451,-0.964358389377594,-1.1703189611434937,-0.3711995482444763,-0.2994598150253296,-0.9517428278923035,0.029890360310673714,-0.5253840684890747,-0.5725306272506714,-0.676300048828125,-0.6705452799797058,-1.289145827293396,-1.0523169040679932,-0.7418981790542603,-0.43874964118003845,-1.4600863456726074,-0.24782976508140564],[-0.39685121178627014,-1.921584129333496,0.03452616184949875,-0.7211424112319946,-0.5495334267616272,-0.743194043636322,-0.7914360761642456,-0.23694263398647308,-1.1414060592651367,0.1728251576423645,-1.5086110830307007,-0.6401342153549194,-1.0685737133026123,-1.2063602209091187,-1.8289659023284912,-1.4928386211395264,-0.6934431791305542,-0.7322031259536743,-0.5012620091438293,-0.012659995816648006]],"biases":[-0.3384152948856354,-2.111804485321045,-0.2284855991601944,3.656201124191284,-1.1501129865646362,-4.0884199142456055,-2.9206042289733887,0.01787504367530346,-1.7188869714736938,-0.10832824558019638,-0.41324594616889954,-0.39885926246643066,-2.507944107055664,-0.21017621457576752,-0.09052003920078278,0.14630228281021118,0.9867243766784668,-3.3846850395202637,-0.20400358736515045,-0.10333428531885147]},{"weights":[[1.7523958683013916,-1.0558254718780518,0.956579864025116,7.085761547088623,-2.7333459854125977,-3.7884461879730225,0.8924643993377686,1.7558673620224,0.1257023811340332,1.5346286296844482,0.8202764987945557,1.7225379943847656,-5.190851211547852,1.8344329595565796,1.8820571899414062,1.7393242120742798,-4.9956440925598145,1.1444368362426758,1.8174495697021484,1.6625077724456787],[-2.520132541656494,0.929078221321106,-4.2050089836120605,-1.2543505430221558,-5.432331562042236,-3.399843215942383,0.48898178339004517,-2.0158329010009766,-2.4707462787628174,-3.1356582641601562,-1.6730499267578125,-0.8509109020233154,-3.0276379585266113,-2.258606433868408,-2.176483154296875,-1.4137368202209473,-2.035759210586548,-1.0244885683059692,-1.4359002113342285,-3.915980100631714],[-1.2341890335083008,0.7379124760627747,-1.0868446826934814,-3.0865817070007324,4.735625267028809,-7.358424663543701,-0.6349403858184814,-0.6038232445716858,1.0388457775115967,-0.5999302268028259,1.2821649312973022,-0.5087335705757141,-0.026499420404434204,-0.8353223204612732,-0.4413192570209503,-0.5841725468635559,5.3982977867126465,0.4046368896961212,-0.3259267508983612,-0.24495434761047363],[0.6097205877304077,-3.954681873321533,-0.23583734035491943,-3.901583194732666,-1.7002557516098022,-1.189357042312622,-0.6937541365623474,0.1729235053062439,0.9600561857223511,0.2842717170715332,-2.4046037197113037,-0.7739240527153015,3.069199323654175,0.049516838043928146,0.2323647141456604,-0.19512221217155457,-2.5201737880706787,-1.1268103122711182,-0.6936056017875671,0.20948512852191925],[0.20938614010810852,0.45685845613479614,-0.8264855146408081,-5.604593276977539,-1.9052423238754272,7.685388088226318,0.26687273383140564,0.24659526348114014,-2.1322011947631836,-0.15685053169727325,-0.9115883708000183,1.8737270832061768,-1.7889702320098877,0.5675942897796631,0.295572966337204,0.9288462400436401,-2.7750630378723145,-1.2170984745025635,0.7023939490318298,-0.22492392361164093]],"biases":[-1.4829246997833252,-1.0453903675079346,-1.390394926071167,-1.4119210243225098,-1.6544170379638672]}],"inputLookup":{"gender":0,"openness":1,"age":2,"neuroticism":3,"conscientiousness":4,"agreeableness":5,"extraversion":6},"inputLookupLength":7,"outputLookup":{"extraverted":0,"serious":1,"dependable":2,"lively":3,"responsible":4},"outputLookupLength":5,"options":{"inputSize":0,"outputSize":0,"binaryThresh":0.5,"hiddenLayers":[20,20,20]},"trainOpts":{"activation":"sigmoid","iterations":20000,"errorThresh":0.005,"log":true,"logPeriod":10,"leakyReluAlpha":0.01,"learningRate":0.3,"momentum":0.1,"callbackPeriod":10,"timeout":"Infinity","beta1":0.9,"beta2":0.999,"epsilon":1e-8}}